0.16587138
0.05939245
0.24669264
-0.031078411
0.031149913
0.08286393
0.0463661
1.309717E-4
-0.092643164
0.13029616
0.18092883
0.0637806
0.07444241
-0.042604823
-0.020198729
0.2010357
-0.16937295
0.04103538
0.15018122
-0.25522882
0.12190885
-0.15427491
0.2001481
0.06973146
0.018695459
0.14263177
-0.11286362
-0.13018237
0.059112597
-0.06277921
-0.0632016
-0.0219112
-0.19796404
-0.05257905
0.075830266
0.11989194
0.26249698
0.16017921
0.09835087
-0.020335974
-0.060596578
0.10920222
-0.10162628
-0.0585869
0.059008557
0.0039001103
0.03996891
0.18622105
0.039813846
0.2542962
0.10240135
-0.036664367
0.038980488
-0.25192937
-0.11184069
-0.17827325
0.085772574
-0.14284045
-0.15646303
-0.010378636
-0.041235507
-0.10990339
0.0399294
-0.042221557
0.11230116
-0.14713971
-0.13729702
-2.4915542E-4
-0.13503939
0.017062208
-0.040171966
0.07425099
0.08426019
0.12767576
-0.13555475
0.032445252
-0.028719084
-0.07943799
0.14186108
0.019403353
-0.05365556
-0.11768067
-0.35698536
-0.08705774
-0.07936293
0.14157069
-0.16924845
-0.1368389
-0.054576427
0.054215156
-0.002103928
-0.059245735
-0.13136101
0.053128496
0.31176174
0.017947108
-0.22988011
0.122235544
0.08013676
0.3344165
-0.010998115
-0.11163482
-0.09668547
-0.016006293
0.22959493
-0.047051173
0.095840134
0.0012865232
0.07420674
-3.030259E-4
0.1122185
-0.15827507
-0.0020278422
-0.017661115
-0.42221323
0.28856277
0.025609678
-0.051438387
0.004769574
0.028951703
-0.265663
-0.10421133
-0.17597437
-0.083918996
0.035069462
0.24992678
-0.023935119
0.11423146
-0.14276774
0.058827996
0.13773115
-0.11199513
0.05582745
0.13341604
0.018677002
-0.04678983
-0.22720096
-0.12296496
0.006535362
-0.008247641
-0.08586905
0.09049213
0.020238275
-0.09685366
0.026927544
0.23112847
0.051619194
0.06387257
0.17731231
-0.16792646
-0.07971621
-0.16326909
-0.11409161
-0.07021536
-0.06166672
0.031415716
0.031008687
0.14018379
-0.037276328
0.7813172
-0.07408447
0.040696952
0.1357468
-0.09845871
7.5067184E-4
-0.05579271
-0.10494894
0.28335765
0.108559325
0.046673216
-0.2444558
-0.04969378
-0.019909145
-0.095557936
0.10313259
-0.08412937
0.089616165
-0.06991237
0.06535127
0.082275555
0.12741302
-0.19948635
0.13634762
-0.014720455
-0.01685271
0.06989243
-0.074594095
0.0054202555
0.09242922
0.012190844
-0.020147154
-0.13288073
0.17692307
-0.020852027
0.026687417
-0.25360358
-0.012060752
0.12651464
0.09991349
-0.10084264
0.25863686
0.029648317
0.014594797
-0.12667207
0.049772926
-0.14167424
0.21503529
0.10985857
0.005347466
-0.15384915
-0.24654676
-0.14324425
0.046655376
-0.012832095
-0.16496643
-0.026820298
0.17196368
0.29344204
-0.07764353
0.19161905
-0.034286384
-0.014416138
-0.04570642
-0.13609865
-0.100756116
-0.0879237
-0.009397467
-0.014777612
0.02120798
-0.07588942
0.07559035
-0.20853911
-3.1507818E-4
0.0155524425
0.17228872
6.6237553E-4
0.103289805
0.064456835
-0.040741093
0.05826274
-0.20603043
-0.09030964
-0.08721857
-0.09894945
-0.19753097
-0.106625594
0.0035581165
-0.001975593
-0.058194716
-0.10603162
-0.072190076
0.0050288374
-0.006133934
-0.18706979
-0.033436656
-0.20478366
0.09045577
0.033134572
-0.1277191
0.018708099
-0.026191253
0.0132318325
-0.016003873
-0.13292392
-0.09184668
0.037135355
-0.08925101
-0.19133992
-0.08519796
-0.06172476
0.010473552
-0.039265033
0.004645002
-0.063150935
0.013450459
0.06658456
0.078967944
0.049850564
0.06328793
0.058859415
-0.022834454
-0.08241559
0.16527735
0.111764155
-0.038655955
0.13924024
-0.007445532
0.14907108
-0.03396274
-0.058946252
-0.03902316
-0.041093636
-0.066095755
-0.020635368
0.09542534
-0.03453309
-0.14092891
-0.03168281
0.14359584
-0.038286548
-0.015468437
-5.574895E-4
-0.08823789
-0.21723734
-0.027378742
0.15899925
0.30967435
-0.010764301
0.05481476
0.1723831
-0.06403304
0.03379376
-0.023042846
-0.07455373
-0.15839876
-0.023958487
-0.027914464
-0.030130621
-0.1733239
-0.042550843
-0.123193614
0.08643078
-0.017146435
-0.024088655
-0.030796833
0.525095
-0.046625223
-0.04551345
0.028914368
-0.04220258
-0.05344558
-0.065253064
0.009877315
0.1144367
0.09671851
0.022507852
-0.0019296177
-0.044485807
-0.08518795
0.0244873
-0.03939013
-0.0570701
0.032599196
-0.05970095
-0.08796794
0.08455625
-0.09729515
0.026916465
0.08059206
0.0031167567
0.06233402
0.09177475
0.068330884
0.10030717
-0.035423696
0.05093221
-0.10729484
0.0023161776
0.03661186
-0.035192583
-0.20537382
0.005745805
-0.004675036
0.13053532
-0.069845006
0.053666316
0.049564917
-0.012525186
-0.11857196
0.031362858
0.117953695
0.016410403
-0.045043156
0.04010405
-0.047345694
0.018150337
-0.0747296
-0.0767092
-0.058819383
-0.08999846
0.013064679
-0.053756796
0.048361767
0.1376987
-0.14458914
-0.0039610043
0.09820898
0.10460106
-0.06223703
0.1436429
-0.08181243
0.043409646
0.29845443
0.141285
-0.051320303
0.03851781
-0.051050656
0.049275793
-0.04322407
0.09448093
-0.023143122
0.094113134
-0.069048285
-0.07365691
-0.068541475
-0.0072091394
-0.0033365844
-0.10822461
-0.030067451
-0.07044185
0.047366027
0.02732186
-0.0043155416
-0.025972763
0.06255627
-0.092582755
0.036124
-0.012608296
-0.04446711
-0.07900333
0.008726979
0.11427909
-0.0886369
0.023426186
-0.0754605
0.06454775
0.027127951
-0.108729
-0.070722856
0.025601996
-0.0781956
-0.06299281
-0.030990364
0.11408818
-0.06693252
-0.17271173
-0.06462108
0.07368306
0.102647305
-0.041217215
-0.038692657
0.006618282
0.12560494
0.04618992
0.059646614
0.034958404
0.026203865
0.055270284
-0.09324143
-0.03838587
0.041156486
-0.0057014115
-0.069992036
0.10494706
0.005236279
9.769871E-4
0.02609901
-0.05324529
-0.07696411
0.20656854
0.18728586
-0.116639
0.011554851
-0.017949078
-0.050093565
0.2498994
-0.03636829
0.18585438
0.054028958
0.1398049
0.07959234
-0.069020376
-0.068869606
-0.051944125
-0.13395649
-0.005195295
-0.0060703233
-0.09258218
0.0052876994
0.0050277035
0.06882051
-0.10371184
-0.011659019
0.029951552
0.06742405
0.111028776
0.08179267
0.1002107
-0.12403571
-0.12254295
-0.11433399
-0.036574833
0.084406674
-0.03231407
-0.016728912
-0.06391525
0.03906104
-0.07276388
0.07800241
-0.04267078
0.088155255
0.006547226
-0.14962764
0.051307812
0.11184123
0.0041347677
0.14991315
-0.03221701
-0.029915465
-0.035495304
-0.048910722
0.14461564
-0.1074501
0.022832807
-0.061060634
0.029985668
-0.19358687
0.26013434
0.024954366
-0.009952626
0.11551887
0.34326416
-0.23746258
-0.17697792
-0.12513562
0.08218168
0.013470633
0.1611058
0.09639098
0.03896309
-0.1310646
-0.29229385
-0.15778303
0.17522687
0.2102052
0.12496442
-0.17533576
-0.1113557
-0.51548237
0.20191431
0.012893567
0.33045995
0.20711613
0.2343188
0.0013151596
0.088816896
-0.22230959
-0.29690668
-0.06986133
0.1461711
-0.11189473
0.19944653
0.007087035
0.26793855
0.30309534
6.415891E-5
0.3783094
-0.21527618
0.12384672
0.1343594
-0.082484104
0.2819293
-0.080117464
-0.28414437
0.031565744
-0.12463255
-0.053042974
0.05673661
-0.34850892
0.086044
0.13336462
0.09456048
0.1806446
0.11448983
0.14754114
0.1376042
-0.18597838
0.10551657
0.115368456
0.19925137
0.39177984
0.4165561
-0.10155055
-0.11431442
-0.3349313
-0.102903485
-0.08031154
0.030683028
0.07289856
-0.21398772
-0.5066861
-0.08644454
-0.07445213
0.081260614
-0.24654879
0.123597614
0.27141827
-0.25938433
0.14768487
-0.11867918
0.16730729
0.19435205
-0.07377428
0.24776001
-0.24535045
-0.24382159
0.23571458
-0.12750033
0.3630816
0.258141
0.022441352
0.1792799
-0.04279599
0.07766213
-0.2315183
-0.03509311
-0.0604115
0.21257977
0.20934178
0.08583057
-0.19181073
-0.013514816
-0.029140735
-0.11726755
0.005827363
0.14175434
0.19405036
-0.048681527
0.17073025
-0.21456453
-0.0162458
-0.25370392
0.21866664
0.15975264
-0.1319191
-0.25840497
-0.21673283
0.07471512
0.06462806
-0.07444308
-0.016279466
-0.22532006
-0.09378609
-0.19953571
-0.32724735
-0.39333087
0.108286545
-0.2374902
0.36974227
0.18937127
-0.1277973
0.1662559
-0.15768774
-0.11624885
-0.08607555
0.16687076
-0.041991293
0.121966034
-0.15312259
-0.17980674
-0.20980936
0.2516699
-0.12557763
-0.09371364
-0.10082327
0.092942245
-0.03623153
-0.21689944
0.07299517
0.15544125
-0.1690688
-0.46387458
0.27474275
-0.120375015
-0.07166234
-0.22457004
-0.18782865
0.24797408
-0.08969854
0.09000117
-0.019449955
-0.1266109
0.045530945
-0.30057186
-0.11264952
0.027427763
-0.54455256
0.20132016
-0.19891496
0.0039208606
0.23696382
-0.029025512
-0.09847478
0.35610434
-0.15038592
0.18494609
0.2737588
0.11761743
-0.22166027
0.39269018
0.01253649
0.21784092
-0.2246432
-0.20938702
0.15059847
0.018243957
0.2247566
-0.2068166
0.2655723
0.1261296
-0.10718217
-0.21464942
-0.23012918
0.18228516
0.1978816
0.15774795
-0.099264085
-0.50750643
0.28132784
0.06585285
-0.104400426
0.45226845
-0.04751572
0.16136487
-0.24791934
-0.3519342
0.23852958
0.13345169
-0.101185136
-0.074728556
0.19241135
-0.1479605
0.027127586
0.39856207
-0.1275963
-0.06321668
0.037285503
0.15922734
0.004499919
0.2237204
-0.021592837
-0.24686594
0.13805743
0.017516851
-0.0977173
0.04293814
-0.10508248
-0.27655175
0.03801835
-0.071722716
-0.21265161
0.43639946
-0.34457573
-0.114368916
-0.04783196
0.12431916
-0.032211963
-0.1680904
0.0446212
-0.37235934
0.28847688
0.06980085
0.20098491
0.13889818
0.18714103
0.12884183
-0.12020072
0.38964638
