-0.037045874
-0.09551452
0.035708293
0.016566563
-0.12902425
0.25061455
-0.013095672
-0.03790945
0.07215895
-0.04230128
0.17971738
0.004445607
-0.038714528
-0.09123278
-0.011966119
-0.084035255
-0.14893022
0.12136088
0.03814387
-0.026974048
-0.1324784
0.004445326
-0.16278237
-0.05540744
0.0493758
-0.11603146
0.051436093
-0.005199851
-0.06501739
-0.102856696
-0.23638293
0.07817783
-0.09357591
0.108428776
-0.09375286
-0.11652144
0.11251769
0.16692178
-0.06968515
0.1507112
0.06237377
0.12510984
0.11594987
0.1655007
0.12161634
0.07814403
0.18298584
0.06901188
0.108320236
0.09224517
0.12425531
0.19422002
0.12186623
0.19536862
0.090522885
0.0854544
0.10767898
0.044828925
0.16976069
0.093655854
0.1658663
0.22798042
0.16675848
0.09799845
0.1429118
0.17011075
0.0773147
0.16768391
0.089424714
0.02245912
0.08266987
0.16449322
0.060467158
0.078312255
0.13248818
0.10498278
0.08521201
0.13749717
0.041238062
0.02685959
0.056988
-0.050581653
0.013458889
-0.15165241
-0.091540925
0.08923981
-0.073467694
-0.08245332
-0.18375716
-0.013092242
0.02885103
0.018297562
-0.0036154294
-0.0097855255
0.0038483778
-0.15596728
-0.067712985
0.034715887
0.041527364
-0.08815049
0.08040925
-0.032535158
-0.091469966
0.0076400843
-0.03150976
0.0247119
-0.0061030425
-0.038349107
0.051586337
-0.11194844
0.027361024
-0.14146398
0.016246477
-0.014036293
-0.08767531
-0.07192753
0.007989752
